<?xml version="1.0"?>
<opencv_storage>
<myhaar type_id="opencv-haar-classifier">
  <size>
    24 24</size>
  <stages>
    <_>
      <trees>
        <_>
          <_>
            <feature>
              <rects>
                <_>
                  7 4 1 20 -1.</_>
                <_>
                  7 14 1 10 2.</_></rects>
              <tilted>0</tilted></feature>
            <threshold>-0.0440179593861103</threshold>
            <left_val>1.</left_val>
            <right_val>-1.0000009536743164</right_val></_></_></trees>
      <stage_threshold>1.</stage_threshold>
      <parent>-1</parent>
      <next>-1</next></_>
    <_>
      <trees>
        <_>
          <_>
            <feature>
              <rects>
                <_>
                  1 0 21 22 -1.</_>
                <_>
                  8 0 7 22 3.</_></rects>
              <tilted>0</tilted></feature>
            <threshold>0.5752443075180054</threshold>
            <left_val>-1.</left_val>
            <right_val>0.9999989867210388</right_val></_></_></trees>
      <stage_threshold>0.9999989867210388</stage_threshold>
      <parent>0</parent>
      <next>-1</next></_></stages></myhaar>
</opencv_storage>
