<?xml version="1.0"?>
<opencv_storage>
<cascade>
  <stageType>BOOST</stageType>
  <featureType>HAAR</featureType>
  <height>20</height>
  <width>20</width>
  <stageParams>
    <boostType>GAB</boostType>
    <minHitRate>9.9000000953674316e-01</minHitRate>
    <maxFalseAlarm>2.0000000298023224e-01</maxFalseAlarm>
    <weightTrimRate>9.4999999999999996e-01</weightTrimRate>
    <maxDepth>1</maxDepth>
    <maxWeakCount>100</maxWeakCount></stageParams>
  <featureParams>
    <maxCatCount>0</maxCatCount>
    <featSize>1</featSize>
    <mode>BASIC</mode></featureParams>
  <stageNum>5</stageNum>
  <stages>
    <!-- stage 0 -->
    <_>
      <maxWeakCount>2</maxWeakCount>
      <stageThreshold>-1.0065640509128571e-01</stageThreshold>
      <weakClassifiers>
        <_>
          <internalNodes>
            0 -1 11 4.2349398136138916e-02</internalNodes>
          <leafValues>
            -9.1809332370758057e-01 9.4303923845291138e-01</leafValues></_>
        <_>
          <internalNodes>
            0 -1 4 5.0956107676029205e-02</internalNodes>
          <leafValues>
            -9.0792399644851685e-01 8.1743693351745605e-01</leafValues></_></weakClassifiers></_>
    <!-- stage 1 -->
    <_>
      <maxWeakCount>3</maxWeakCount>
      <stageThreshold>6.0076314210891724e-01</stageThreshold>
      <weakClassifiers>
        <_>
          <internalNodes>
            0 -1 12 2.5283438153564930e-03</internalNodes>
          <leafValues>
            -8.4008097648620605e-01 8.9158064126968384e-01</leafValues></_>
        <_>
          <internalNodes>
            0 -1 9 2.4960057809948921e-02</internalNodes>
          <leafValues>
            -9.2989200353622437e-01 7.7376103401184082e-01</leafValues></_>
        <_>
          <internalNodes>
            0 -1 18 -3.9080426096916199e-02</internalNodes>
          <leafValues>
            6.6708308458328247e-01 -8.5577583312988281e-01</leafValues></_></weakClassifiers></_>
    <!-- stage 2 -->
    <_>
      <maxWeakCount>5</maxWeakCount>
      <stageThreshold>1.2810318171977997e-01</stageThreshold>
      <weakClassifiers>
        <_>
          <internalNodes>
            0 -1 2 2.4268995970487595e-02</internalNodes>
          <leafValues>
            -8.3562719821929932e-01 7.5590986013412476e-01</leafValues></_>
        <_>
          <internalNodes>
            0 -1 17 -1.6116227954626083e-02</internalNodes>
          <leafValues>
            7.2408455610275269e-01 -7.6080298423767090e-01</leafValues></_>
        <_>
          <internalNodes>
            0 -1 7 6.3154324889183044e-03</internalNodes>
          <leafValues>
            -8.2159316539764404e-01 6.9715213775634766e-01</leafValues></_>
        <_>
          <internalNodes>
            0 -1 14 -9.1242641210556030e-03</internalNodes>
          <leafValues>
            4.1419315338134766e-01 -9.7726947069168091e-01</leafValues></_>
        <_>
          <internalNodes>
            0 -1 20 -2.8916376177221537e-03</internalNodes>
          <leafValues>
            6.4704579114913940e-01 -6.7951864004135132e-01</leafValues></_></weakClassifiers></_>
    <!-- stage 3 -->
    <_>
      <maxWeakCount>5</maxWeakCount>
      <stageThreshold>-6.1820411682128906e-01</stageThreshold>
      <weakClassifiers>
        <_>
          <internalNodes>
            0 -1 8 1.4794469811022282e-02</internalNodes>
          <leafValues>
            -9.1966760158538818e-01 6.8426465988159180e-01</leafValues></_>
        <_>
          <internalNodes>
            0 -1 0 4.8895273357629776e-03</internalNodes>
          <leafValues>
            -6.3776046037673950e-01 6.2558710575103760e-01</leafValues></_>
        <_>
          <internalNodes>
            0 -1 16 2.2990358993411064e-03</internalNodes>
          <leafValues>
            -5.8771967887878418e-01 7.0935410261154175e-01</leafValues></_>
        <_>
          <internalNodes>
            0 -1 5 -7.5854109600186348e-03</internalNodes>
          <leafValues>
            6.7227590084075928e-01 -5.7550925016403198e-01</leafValues></_>
        <_>
          <internalNodes>
            0 -1 15 -2.7220705524086952e-03</internalNodes>
          <leafValues>
            5.3044497966766357e-01 -7.6482695341110229e-01</leafValues></_></weakClassifiers></_>
    <!-- stage 4 -->
    <_>
      <maxWeakCount>6</maxWeakCount>
      <stageThreshold>-4.0437251329421997e-01</stageThreshold>
      <weakClassifiers>
        <_>
          <internalNodes>
            0 -1 3 3.0499210581183434e-02</internalNodes>
          <leafValues>
            5.8265060186386108e-01 -9.1661971807479858e-01</leafValues></_>
        <_>
          <internalNodes>
            0 -1 13 2.1514142863452435e-03</internalNodes>
          <leafValues>
            -5.9459680318832397e-01 6.2054955959320068e-01</leafValues></_>
        <_>
          <internalNodes>
            0 -1 1 1.0520103573799133e-01</internalNodes>
          <leafValues>
            -7.7310514450073242e-01 4.9214476346969604e-01</leafValues></_>
        <_>
          <internalNodes>
            0 -1 6 1.6092128353193402e-03</internalNodes>
          <leafValues>
            -7.3103421926498413e-01 4.8297441005706787e-01</leafValues></_>
        <_>
          <internalNodes>
            0 -1 19 -5.7815946638584137e-03</internalNodes>
          <leafValues>
            5.0941359996795654e-01 -6.6427218914031982e-01</leafValues></_>
        <_>
          <internalNodes>
            0 -1 10 3.1434863805770874e-02</internalNodes>
          <leafValues>
            -5.6357598304748535e-01 5.6197655200958252e-01</leafValues></_></weakClassifiers></_></stages>
  <features>
    <_>
      <rects>
        <_>
          1 12 6 1 -1.</_>
        <_>
          4 12 3 1 2.</_></rects>
      <tilted>0</tilted></_>
    <_>
      <rects>
        <_>
          1 13 18 3 -1.</_>
        <_>
          7 13 6 3 3.</_></rects>
      <tilted>0</tilted></_>
    <_>
      <rects>
        <_>
          3 8 6 8 -1.</_>
        <_>
          3 8 3 4 2.</_>
        <_>
          6 12 3 4 2.</_></rects>
      <tilted>0</tilted></_>
    <_>
      <rects>
        <_>
          3 9 10 5 -1.</_>
        <_>
          8 9 5 5 2.</_></rects>
      <tilted>0</tilted></_>
    <_>
      <rects>
        <_>
          3 13 15 3 -1.</_>
        <_>
          8 13 5 3 3.</_></rects>
      <tilted>0</tilted></_>
    <_>
      <rects>
        <_>
          4 5 4 4 -1.</_>
        <_>
          4 5 2 2 2.</_>
        <_>
          6 7 2 2 2.</_></rects>
      <tilted>0</tilted></_>
    <_>
      <rects>
        <_>
          4 6 3 2 -1.</_>
        <_>
          5 6 1 2 3.</_></rects>
      <tilted>0</tilted></_>
    <_>
      <rects>
        <_>
          6 4 8 3 -1.</_>
        <_>
          6 5 8 1 3.</_></rects>
      <tilted>0</tilted></_>
    <_>
      <rects>
        <_>
          6 8 6 9 -1.</_>
        <_>
          9 8 3 9 2.</_></rects>
      <tilted>0</tilted></_>
    <_>
      <rects>
        <_>
          6 11 5 6 -1.</_>
        <_>
          6 13 5 2 3.</_></rects>
      <tilted>0</tilted></_>
    <_>
      <rects>
        <_>
          7 2 6 6 -1.</_>
        <_>
          7 4 6 2 3.</_></rects>
      <tilted>0</tilted></_>
    <_>
      <rects>
        <_>
          8 10 4 9 -1.</_>
        <_>
          8 13 4 3 3.</_></rects>
      <tilted>0</tilted></_>
    <_>
      <rects>
        <_>
          9 3 5 2 -1.</_>
        <_>
          9 4 5 1 2.</_></rects>
      <tilted>0</tilted></_>
    <_>
      <rects>
        <_>
          9 10 3 1 -1.</_>
        <_>
          10 10 1 1 3.</_></rects>
      <tilted>0</tilted></_>
    <_>
      <rects>
        <_>
          10 4 6 5 -1.</_>
        <_>
          13 4 3 5 2.</_></rects>
      <tilted>0</tilted></_>
    <_>
      <rects>
        <_>
          10 16 2 2 -1.</_>
        <_>
          10 17 2 1 2.</_></rects>
      <tilted>0</tilted></_>
    <_>
      <rects>
        <_>
          12 9 3 1 -1.</_>
        <_>
          13 9 1 1 3.</_></rects>
      <tilted>0</tilted></_>
    <_>
      <rects>
        <_>
          12 14 4 4 -1.</_>
        <_>
          12 16 4 2 2.</_></rects>
      <tilted>0</tilted></_>
    <_>
      <rects>
        <_>
          13 8 6 8 -1.</_>
        <_>
          16 8 3 8 2.</_></rects>
      <tilted>0</tilted></_>
    <_>
      <rects>
        <_>
          16 8 2 5 -1.</_>
        <_>
          17 8 1 5 2.</_></rects>
      <tilted>0</tilted></_>
    <_>
      <rects>
        <_>
          17 10 2 2 -1.</_>
        <_>
          18 10 1 2 2.</_></rects>
      <tilted>0</tilted></_></features></cascade>
</opencv_storage>
